svm_type c_svc
kernel_type rbf
gamma 0.166667
nr_class 2
total_sv 501
rho 1.23943
label 1 -1
nr_sv 250 251
SV
1 1:0 2:0 3:0 4:0 5:0 6:0.00394 
1 1:0 2:0 3:0 4:0 5:0 6:0.02326 
1 1:0 2:0 3:0 4:0 5:0 6:0.03846 
1 1:0 2:0 3:0 4:0 5:0 6:0.00623 
1 1:0 2:0 3:0 4:0 5:0 6:0.00181 
1 1:0 2:0 3:0 4:0 5:0 6:0.00806 
1 1:0 2:0 3:0 4:0 5:0 6:0.03226 
1 1:0 2:0 3:0 4:0 5:0 6:0.00595 
1 1:0 2:0 3:0 4:0 5:0 6:0.00478 
1 1:0 2:0 3:0 4:0 5:0 6:0.00238 
1 1:0 2:0 3:0 4:0 5:0 6:0.00254 
1 1:0 2:0 3:0 4:0 5:0 6:0.00803 
1 1:0 2:0 3:0 4:0 5:0 6:0.02632 
1 1:0 2:0 3:0 4:0 5:0 6:0.04545 
1 1:0 2:0 3:0 4:0 5:0 6:0.04762 
1 1:0 2:0 3:0 4:0 5:0 6:0.05263 
1 1:0 2:0.25 3:0 4:0 5:0 6:0.03125 
1 1:0 2:0 3:0 4:0 5:0 6:0.0146 
1 1:0 2:0 3:0 4:0 5:0 6:0.00538 
1 1:0 2:0 3:0 4:0 5:0 6:0.00538 
1 1:0 2:0 3:0 4:0.33333 5:0 6:0.0083 
1 1:0 2:0 3:0 4:0 5:0 6:0.02941 
1 1:0 2:0 3:0 4:0 5:0 6:0.01923 
1 1:0 2:0 3:0 4:0 5:0 6:0.00355 
1 1:0 2:0 3:0 4:0 5:0 6:0.0082 
1 1:0 2:0 3:0 4:0 5:0 6:0.06667 
1 1:0 2:0 3:0 4:0 5:0 6:0.02326 
1 1:0 2:0 3:0 4:0 5:0 6:0.04545 
1 1:0 2:0 3:0 4:0 5:0 6:0.00877 
1 1:0 2:0 3:0 4:0.14286 5:0 6:0.0625 
1 1:0 2:0 3:0 4:0.2 5:0 6:0.03822 
1 1:0 2:0 3:0 4:0 5:0 6:0.03846 
1 1:0 2:0 3:0 4:0 5:0 6:0.2 
1 1:0 2:0 3:0 4:0 5:0 6:0.00447 
1 1:0 2:0 3:0 4:0 5:0 6:0.00452 
1 1:0 2:0 3:0 4:0 5:0 6:0.02222 
1 1:0 2:0 3:0 4:0 5:0 6:0.06667 
1 1:0 2:0 3:0 4:0 5:0 6:0.02222 
0.8208796385712243 1:0 2:0 3:0 4:0.14286 5:0 6:0 
1 1:0 2:0 3:0 4:0 5:0 6:0.02222 
1 1:0 2:0 3:0 4:0 5:0 6:0.02222 
1 1:0 2:0 3:0 4:0 5:0 6:0.08696 
1 1:0 2:0 3:0 4:0 5:0 6:0.01154 
1 1:0 2:0 3:0 4:0 5:0 6:0.00935 
1 1:0 2:0 3:0 4:0 5:0 6:0.00549 
1 1:0 2:0 3:0 4:0 5:0 6:0.00901 
1 1:0 2:0 3:0 4:0 5:0 6:0.00685 
1 1:0 2:0 3:0 4:0 5:0 6:0.02941 
1 1:0 2:0 3:0 4:0 5:0 6:0.00373 
1 1:0 2:0 3:0 4:0 5:0 6:0.00338 
1 1:0 2:0 3:0 4:0 5:0 6:0.125 
1 1:0 2:0 3:0 4:0 5:0 6:0.02941 
1 1:0 2:0 3:0 4:0 5:0 6:0.02742 
1 1:0 2:0 3:0 4:0 5:0 6:0.04545 
1 1:0 2:0 3:0 4:0 5:0 6:0.00662 
1 1:0 2:0 3:0 4:0 5:0 6:0.02174 
1 1:0 2:0 3:0 4:0.125 5:0 6:0.02315 
1 1:0 2:0 3:0 4:0 5:0 6:0.00215 
1 1:0 2:0 3:0 4:0.5 5:0 6:0 
1 1:0 2:0 3:0 4:0 5:0 6:0.01562 
1 1:0 2:0 3:0 4:0.14286 5:0 6:0.02703 
1 1:0 2:0 3:0 4:0 5:0 6:0.02083 
1 1:0 2:0 3:0 4:0.16667 5:0 6:0.04545 
1 1:0 2:0 3:0 4:0.14286 5:0 6:0.14286 
1 1:0 2:0 3:0 4:0 5:0 6:0.03571 
1 1:0 2:0 3:0 4:0.14286 5:0 6:0.06667 
1 1:0 2:0 3:0 4:0 5:0 6:0.00462 
1 1:0 2:0 3:0 4:0 5:0 6:0.00518 
1 1:0 2:0 3:0 4:0 5:0 6:0.00186 
1 1:0 2:0 3:0 4:0 5:0 6:0.00386 
1 1:0 2:0 3:0 4:0 5:0 6:0.00373 
1 1:0 2:0.14286 3:0 4:0 5:0 6:0 
1 1:0 2:0 3:0 4:0 5:0 6:0.00245 
1 1:0 2:1 3:0 4:0 5:0 6:0.0101 
1 1:0 2:0 3:0 4:0 5:0 6:0.017 
1 1:0 2:0 3:0 4:0 5:0 6:0.00328 
1 1:0 2:0 3:0 4:0 5:0 6:0.00145 
1 1:0 2:0 3:0 4:0 5:0 6:0.02632 
1 1:0 2:0 3:0 4:0 5:0 6:0.00324 
1 1:0 2:0 3:0 4:0 5:0 6:0.00322 
1 1:0 2:0 3:0 4:0 5:0 6:0.04063 
1 1:0 2:0 3:0 4:0 5:0 6:0.003 
1 1:0 2:0 3:0 4:0 5:0 6:0.04762 
1 1:0 2:0 3:0 4:0 5:0 6:0.00348 
1 1:0 2:0 3:0 4:0 5:0 6:0.00266 
1 1:0 2:0 3:0 4:0.2 5:0 6:0.07692 
1 1:0 2:0 3:0 4:0.2 5:0 6:0.07143 
1 1:0 2:0 3:0 4:0 5:0 6:0.04762 
1 1:0 2:0 3:0 4:0 5:0 6:0.00266 
1 1:0 2:0 3:0 4:0 5:0 6:0.00225 
1 1:0 2:0 3:0 4:0 5:0 6:0.00442 
1 1:0 2:0 3:0 4:0 5:0 6:0.00251 
1 1:0 2:0 3:0 4:0 5:0 6:0.03333 
1 1:0 2:0 3:0 4:0 5:0 6:0.04167 
1 1:0 2:0 3:0 4:0 5:0 6:0.01064 
1 1:0 2:0 3:0 4:0.16667 5:0 6:0.06667 
1 1:0 2:0 3:0 4:0 5:0 6:0.00132 
1 1:0 2:0 3:0 4:0 5:0 6:0.00251 
1 1:0 2:0 3:0 4:0 5:0 6:0.04545 
1 1:0 2:0 3:0 4:0 5:0 6:0.00197 
1 1:0 2:0 3:0 4:0 5:0 6:0.07143 
1 1:0 2:0 3:0 4:0 5:0 6:0.00318 
1 1:0 2:0 3:0 4:0 5:0 6:0.04545 
1 1:0 2:0 3:0 4:0 5:0 6:0.01 
1 1:0 2:0 3:0 4:0 5:0 6:0.5 
1 1:0 2:0 3:0 4:0 5:0 6:0.00211 
1 1:0 2:0 3:0 4:0 5:0 6:0.01818 
1 1:0 2:0 3:0 4:0 5:0 6:0.04545 
1 1:0 2:0 3:0 4:0.33333 5:0 6:0.00769 
1 1:0 2:0 3:0 4:0 5:0 6:0.00873 
1 1:0 2:0 3:0 4:0 5:0 6:0.00641 
1 1:0 2:0 3:0 4:0.25 5:0 6:0.08333 
1 1:0 2:0 3:0 4:0 5:0 6:0.025 
1 1:0 2:0 3:0 4:0 5:0 6:0.02632 
1 1:0 2:0 3:0 4:0 5:0 6:0.02381 
1 1:0 2:0 3:0 4:0 5:0 6:0.05882 
1 1:0 2:0 3:0 4:0 5:0 6:0.0117 
1 1:0 2:0 3:0 4:0 5:0 6:0.00806 
1 1:0 2:0 3:0 4:0 5:0 6:0.01587 
1 1:0 2:0 3:0 4:0 5:0 6:0.02564 
1 1:0 2:0 3:0 4:0 5:0 6:0.02525 
1 1:0 2:0 3:0 4:0.25 5:0 6:0 
1 1:0 2:0 3:0 4:0 5:0 6:0.00758 
1 1:0 2:0 3:0 4:0 5:0 6:0.00271 
1 1:0 2:0 3:0 4:0.33333 5:0 6:0.125 
1 1:0 2:0 3:0 4:0.33333 5:0 6:0.125 
1 1:0 2:0 3:0 4:0 5:0 6:0.02128 
1 1:0 2:0 3:0 4:0 5:0 6:0.00735 
1 1:0 2:0 3:0 4:0 5:0 6:0.01333 
1 1:0 2:0 3:0 4:0.14286 5:0 6:0.0625 
1 1:0 2:0 3:0 4:0 5:0 6:0.00495 
1 1:0 2:0 3:0 4:0 5:0 6:0.0037 
1 1:0 2:0 3:0 4:0 5:0 6:0.02532 
1 1:0 2:0 3:0 4:0.25 5:0 6:0.08333 
1 1:0 2:0 3:0 4:0 5:0 6:0.03333 
1 1:0 2:0 3:0 4:0 5:0 6:0.02778 
1 1:0 2:0 3:0 4:0 5:0 6:0.00746 
1 1:0 2:0 3:0 4:0 5:0 6:0.01754 
1 1:0 2:0 3:0 4:0 5:0 6:0.01695 
1 1:0 2:0 3:0 4:0.5 5:0 6:0.01724 
1 1:0 2:0 3:0 4:0 5:0 6:0.0625 
1 1:0 2:0 3:0 4:0 5:0 6:0.1 
1 1:0 2:0 3:0 4:0 5:0 6:0.03333 
1 1:0 2:0 3:0 4:0 5:0 6:0.018 
1 1:0 2:0 3:0 4:0.09091 5:0 6:0.05263 
1 1:0 2:0 3:0 4:0.14286 5:0 6:0.05882 
1 1:0 2:0 3:0 4:0.14286 5:0 6:0.05882 
1 1:0 2:0 3:0 4:0.16667 5:0 6:0.125 
1 1:0 2:0 3:0 4:0.14286 5:0 6:0.06667 
1 1:0 2:0 3:0 4:0.14286 5:0 6:0.06667 
1 1:0 2:0 3:0 4:0 5:0 6:0.07692 
1 1:0 2:0 3:0 4:0 5:0 6:0.0015 
1 1:0 2:0 3:0 4:0 5:0 6:0.0303 
1 1:0 2:0 3:0 4:0 5:0 6:0.07692 
1 1:0 2:0 3:0 4:0 5:0 6:0.05051 
1 1:0 2:0 3:0 4:0 5:0 6:0.00318 
1 1:0 2:0 3:0 4:0 5:0 6:0.0625 
1 1:0 2:0 3:0 4:0 5:0 6:0.00291 
1 1:0 2:0 3:0 4:0 5:0 6:0.5 
1 1:0 2:0 3:0 4:0 5:0 6:0.00832 
1 1:0 2:0 3:0 4:0 5:0 6:0.01754 
1 1:0 2:0 3:0 4:0 5:0 6:0.05882 
1 1:0 2:0 3:0 4:0 5:0 6:0.11111 
1 1:0 2:0 3:0 4:0 5:0 6:0.00529 
1 1:0 2:0 3:0 4:0 5:0 6:0.03846 
1 1:0 2:0 3:0 4:0 5:0 6:0.01626 
1 1:0 2:0 3:0 4:0 5:0 6:0.06667 
1 1:0 2:0 3:0 4:0 5:0 6:0.05882 
1 1:0 2:0 3:0 4:0 5:0 6:0.02857 
1 1:0 2:0 3:0 4:0 5:0 6:0.05263 
1 1:0 2:0 3:0 4:0 5:0 6:0.01596 
1 1:0 2:0 3:0 4:0 5:0 6:0.03125 
1 1:0 2:0 3:0 4:0 5:0 6:0.00709 
1 1:0 2:0 3:0 4:0.25 5:0 6:0 
1 1:0 2:0 3:0 4:0 5:0 6:0.00559 
1 1:0 2:0 3:0 4:0 5:0 6:0.00275 
1 1:0 2:0 3:0 4:0.2 5:0 6:0.07143 
1 1:0 2:0 3:0 4:0 5:0 6:0.02632 
1 1:0 2:0 3:0 4:0 5:0 6:0.09091 
1 1:0 2:0 3:0 4:0 5:0 6:0.0033 
1 1:0 2:0 3:0 4:0 5:0 6:0.025 
1 1:0 2:0 3:0 4:0 5:0 6:0 
1 1:0 2:0 3:0 4:0 5:0 6:0 
1 1:0 2:0 3:0 4:0 5:0 6:0 
1 1:0 2:0 3:0 4:0 5:0 6:0 
1 1:0 2:0 3:0 4:0 5:0 6:0 
1 1:0 2:0 3:0 4:0 5:0 6:0 
1 1:0 2:0 3:0 4:0 5:0 6:0 
1 1:0 2:0 3:0 4:0 5:0 6:0 
1 1:0 2:0 3:0 4:0 5:0 6:0 
1 1:0 2:0 3:0 4:0 5:0 6:0 
1 1:0 2:0 3:0 4:0 5:0 6:0 
1 1:0 2:0 3:0 4:0 5:0 6:0 
1 1:0 2:0 3:0 4:0 5:0 6:0 
1 1:0 2:0 3:0 4:0 5:0 6:0 
1 1:0 2:0 3:0 4:0 5:0 6:0 
1 1:0 2:0 3:0 4:0 5:0 6:0 
1 1:0 2:0 3:0 4:0 5:0 6:0 
1 1:0 2:0 3:0 4:0 5:0 6:0 
1 1:0 2:0 3:0 4:0 5:0 6:0 
1 1:0 2:0 3:0 4:0 5:0 6:0 
1 1:0 2:0 3:0 4:0 5:0 6:0 
1 1:0 2:0 3:0 4:0 5:0 6:0 
1 1:0 2:0 3:0 4:0 5:0 6:0 
1 1:0 2:0 3:0 4:0.07692 5:0 6:0.04545 
1 1:0 2:0 3:0 4:0 5:0 6:0 
1 1:0 2:0 3:0 4:0 5:0 6:0 
1 1:0 2:0 3:0 4:0 5:0 6:0 
1 1:0 2:0 3:0 4:0 5:0 6:0 
1 1:0 2:0 3:0 4:0 5:0 6:0 
1 1:0 2:0 3:0 4:0 5:0 6:0 
1 1:0 2:0 3:0 4:0 5:0 6:0 
1 1:0 2:0 3:0 4:0 5:0 6:0 
1 1:0 2:0 3:0 4:0 5:0 6:0 
1 1:0 2:0 3:0 4:0 5:0 6:0 
1 1:0 2:0 3:0 4:0 5:0 6:0 
1 1:0 2:0 3:0 4:0 5:0 6:0 
1 1:0 2:0 3:0 4:0 5:0 6:0 
1 1:0 2:0 3:0 4:0 5:0 6:0 
1 1:0 2:0 3:0 4:0 5:0 6:0 
1 1:0 2:0 3:0 4:0 5:0 6:0 
1 1:0 2:0 3:0 4:0 5:0 6:0 
1 1:0 2:0 3:0 4:0 5:0 6:0 
1 1:0 2:0 3:0 4:0 5:0 6:0 
1 1:0 2:0 3:0 4:0 5:0 6:0 
1 1:0 2:0 3:0 4:0 5:0 6:0 
1 1:0 2:0 3:0 4:0 5:0 6:0 
1 1:0 2:0 3:0 4:0 5:0 6:0 
1 1:0 2:0 3:0 4:0 5:0 6:0 
1 1:0 2:0 3:0 4:0 5:0 6:0 
1 1:0 2:0 3:0 4:0 5:0 6:0 
1 1:0 2:0 3:0 4:0 5:0 6:0 
1 1:0 2:0 3:0 4:0 5:0 6:0 
1 1:0 2:0 3:0 4:0 5:0 6:0 
1 1:0 2:0 3:0 4:0 5:0 6:0 
1 1:0 2:0 3:0 4:0 5:0 6:0 
1 1:0 2:0 3:0 4:0 5:0 6:0 
1 1:0 2:0 3:0 4:0 5:0 6:0 
1 1:0 2:0 3:0 4:0 5:0 6:0 
1 1:0 2:0 3:0 4:0 5:0 6:0 
1 1:0 2:0 3:0 4:0 5:0 6:0 
1 1:0 2:0 3:0 4:0 5:0 6:0 
1 1:0 2:0 3:0 4:0 5:0 6:0 
1 1:0 2:0 3:0 4:0 5:0 6:0 
1 1:0 2:0 3:0 4:0 5:0 6:0 
0.02845500095486178 1:0 2:0 3:0 4:0 5:0 6:0 
1 1:0 2:0 3:0 4:0 5:0 6:0 
1 1:0 2:0 3:0 4:0 5:0 6:0 
1 1:0 2:0 3:0 4:0 5:0 6:0 
1 1:0 2:0 3:0 4:0 5:0 6:0 
-1 1:0 2:0 3:0.16667 4:0 5:0.01157 6:0.04132 
-1 1:0 2:0 3:0 4:0 5:0.13776 6:0.03444 
-1 1:0 2:0 3:0 4:0 5:0.13776 6:0.03444 
-1 1:0 2:0 3:0 4:0 5:0.29268 6:0.03659 
-1 1:0 2:0 3:0 4:0 5:0.29268 6:0.03659 
-1 1:0 2:0 3:0.2 4:0 5:0.05455 6:0.14545 
-1 1:0 2:0 3:0.2 4:0 5:0.05455 6:0.14545 
-1 1:0 2:0 3:0.2 4:0 5:0.05455 6:0.14545 
-1 1:0 2:0 3:0.2 4:0 5:0.05455 6:0.14545 
-1 1:0 2:0 3:0.2 4:0 5:0.05455 6:0.14545 
-1 1:0 2:0 3:0.2 4:0 5:0.05455 6:0.14545 
-1 1:0 2:0 3:0.2 4:0 5:0.05455 6:0.14545 
-1 1:0 2:0 3:0.2 4:0 5:0.05455 6:0.14545 
-1 1:0 2:0 3:0.2 4:0 5:0.05455 6:0.14545 
-1 1:0 2:0 3:0.2 4:0 5:0.05455 6:0.14545 
-1 1:0 2:0 3:0.2 4:0 5:0.05455 6:0.14545 
-1 1:0 2:0 3:0.2 4:0 5:0.05455 6:0.14545 
-1 1:0 2:0 3:0.2 4:0 5:0.05455 6:0.14545 
-1 1:0 2:0 3:0.2 4:0 5:0.05455 6:0.14545 
-1 1:0 2:0 3:0.2 4:0 5:0.05455 6:0.14545 
-1 1:0 2:0 3:0.2 4:0 5:0.05455 6:0.14545 
-1 1:0 2:0 3:0.14286 4:0 5:0 6:0 
-1 1:0 2:0 3:0.14286 4:0 5:0.08696 6:0.13043 
-1 1:0 2:0 3:0.2 4:0 5:0.05455 6:0.14545 
-1 1:0 2:0 3:0.14286 4:0 5:0 6:0 
-1 1:0 2:0 3:0.14286 4:0 5:0.08696 6:0.13043 
-1 1:0 2:0 3:0.2 4:0 5:0.05455 6:0.14545 
-1 1:0 2:0 3:0.14286 4:0 5:0 6:0 
-1 1:0 2:0 3:0.14286 4:0 5:0.08696 6:0.13043 
-1 1:0 2:0 3:0.2 4:0 5:0.05455 6:0.14545 
-1 1:0 2:0 3:0.14286 4:0 5:0 6:0 
-1 1:0 2:0 3:0.14286 4:0 5:0.08696 6:0.13043 
-1 1:0 2:0 3:0.2 4:0 5:0.05308 6:0.00425 
-1 1:0 2:0 3:0.16667 4:0 5:0.03977 6:0.00284 
-1 1:0 2:0 3:0.2 4:0 5:0.00308 6:0.00615 
-1 1:0 2:0 3:0.16667 4:0 5:0.03612 6:0.00164 
-1 1:0 2:0 3:0.2 4:0 5:0.01935 6:0.00645 
-1 1:0 2:0 3:0.2 4:0 5:0.00558 6:0 
-1 1:0 2:0 3:0.2 4:0 5:0.01144 6:0.00654 
-1 1:0 2:0 3:0.125 4:0 5:0.00405 6:0.00101 
-1 1:0 2:0 3:0.14286 4:0 5:0.01837 6:0.00397 
-1 1:0 2:0 3:0 4:0.33333 5:0.12 6:0.04 
-1 1:0 2:0 3:0.14286 4:0 5:0.00954 6:0.00409 
-1 1:0 2:0 3:0 4:0 5:0.04762 6:0 
-1 1:0 2:0 3:0.14286 4:0 5:0.00829 6:0.00552 
-1 1:0 2:0 3:0.2 4:0 5:0.01538 6:0.00096 
-1 1:0 2:0 3:0 4:0.16667 5:0.08333 6:0 
-1 1:0 2:0 3:0 4:0 5:0.15686 6:0.06863 
-1 1:0.25 2:0 3:0 4:0 5:0 6:0 
-1 1:0 2:0 3:0 4:0 5:0.28571 6:0 
-0.2015980493224623 1:0 2:0 3:0 4:0 5:0.33333 6:0 
-1 1:0 2:0 3:0 4:0 5:0.02985 6:0 
-0.6681779054314568 1:0.4 2:0 3:0 4:0.4 5:0 6:0 
-1 1:0.28571 2:0 3:0 4:0 5:0 6:0 
-1 1:0.28571 2:0.14286 3:0 4:0 5:0 6:0.07692 
-1 1:0.4 2:0 3:0 4:0.33333 5:0 6:0 
-1 1:0 2:0 3:0 4:0 5:0.33333 6:0 
-1 1:0.4 2:0 3:0 4:0 5:0 6:0 
-1 1:0.4 2:0 3:0 4:0.16667 5:0 6:0 
-1 1:0.33333 2:0 3:0 4:0 5:0 6:0 
-1 1:0.33333 2:0.33333 3:0 4:0.25 5:0 6:0 
-1 1:0.4 2:0 3:0 4:0 5:0 6:0 
-1 1:0.25 2:0 3:0 4:0 5:0 6:0 
-1 1:0.4 2:0 3:0 4:0 5:0 6:0 
-1 1:0.4 2:0 3:0 4:0 5:0 6:0 
-1 1:0 2:0 3:0 4:0 5:0.33333 6:0 
-1 1:0.4 2:0 3:0 4:0 5:0 6:0 
-1 1:0.4 2:0 3:0 4:0 5:0 6:0 
-1 1:0 2:0 3:0 4:0 5:0.33333 6:0 
-1 1:0.4 2:0 3:0 4:0 5:0 6:0 
-1 1:0.33333 2:0 3:0 4:0 5:0 6:0 
-1 1:0.4 2:0 3:0 4:0 5:0 6:0 
-1 1:0.4 2:0 3:0 4:0.33333 5:0 6:0 
-1 1:0.33333 2:0.33333 3:0 4:0.21429 5:0 6:0 
-1 1:0.4 2:0 3:0 4:0 5:0 6:0 
-1 1:0 2:0 3:0 4:0 5:0.04167 6:0 
-1 1:0.4 2:0 3:0 4:0.2 5:0 6:0 
-1 1:0.4 2:0 3:0 4:0 5:0 6:0 
-1 1:0 2:0 3:0 4:0 5:0.2 6:0 
-1 1:0.4 2:0 3:0 4:0.25 5:0 6:0 
-1 1:0.33333 2:0 3:0 4:0 5:0 6:0 
-1 1:0.25 2:0 3:0 4:0 5:0.05263 6:0 
-1 1:0 2:0 3:0 4:0 5:0.03333 6:0 
-1 1:0 2:0 3:0 4:0 5:0.03125 6:0 
-1 1:0.4 2:0 3:0 4:0 5:0 6:0 
-1 1:0.4 2:0 3:0 4:0 5:0 6:0 
-1 1:0.4 2:0 3:0 4:0 5:0 6:0 
-1 1:0.33333 2:0 3:0 4:0 5:0.01235 6:0.06173 
-1 1:0 2:0 3:0.2 4:0 5:0.06667 6:0 
-1 1:0 2:0 3:0.16667 4:0 5:0.07143 6:0 
-1 1:0 2:1 3:0.16667 4:0.16667 5:0 6:0 
-1 1:0 2:0 3:0 4:0 5:0.02804 6:0 
-1 1:0 2:0 3:0 4:0 5:0.25 6:0 
-1 1:0 2:0 3:0.16667 4:0 5:0.05882 6:0 
-1 1:0 2:0 3:0.14286 4:0 5:0.09211 6:0.06579 
-1 1:0 2:0 3:0 4:0 5:0.33333 6:0 
-1 1:0 2:0 3:0.125 4:0 5:0.15385 6:0 
-1 1:0 2:0 3:0 4:0 5:0.15789 6:0.02632 
-1 1:0 2:0 3:0.125 4:0 5:0.15385 6:0 
-1 1:0 2:0 3:0 4:0 5:0.25128 6:0.06923 
-1 1:0 2:0 3:0.2 4:0 5:0.02871 6:0 
-1 1:0 2:0 3:0 4:0 5:0.03922 6:0 
-1 1:0 2:0 3:0 4:0 5:0.03922 6:0 
-1 1:0 2:0 3:0 4:0 5:0.33333 6:0 
-1 1:0 2:0 3:0 4:0 5:0.30328 6:0.01639 
-1 1:0 2:0 3:0 4:0 5:0.24138 6:0 
-1 1:0 2:0 3:0.16667 4:0 5:0.03103 6:0.04138 
-0.853432409595122 1:0.4 2:0 3:0 4:0 5:0 6:0 
-1 1:0.33333 2:0 3:0 4:0 5:0 6:0 
-1 1:0 2:0 3:0.16667 4:0 5:0.09045 6:0.03015 
-1 1:0 2:0 3:0.14286 4:0 5:0.05357 6:0 
-1 1:0.33333 2:0 3:0 4:0 5:0 6:0 
-1 1:0.33333 2:0 3:0 4:0 5:0 6:0 
-1 1:0 2:0 3:0.14286 4:0 5:0.08571 6:0 
-1 1:0 2:0 3:0.14286 4:0 5:0.08 6:0 
-1 1:0 2:0 3:0 4:0.2 5:0.13651 6:0.01445 
-1 1:0 2:0 3:0.125 4:0 5:0.06667 6:0 
-1 1:0.25 2:0 3:0.09091 4:0 5:0 6:0 
-1 1:0 2:0 3:0.11111 4:0 5:0.15652 6:0.08696 
-1 1:0 2:0 3:0.2 4:0 5:0.02357 6:0.01088 
-1 1:0 2:0 3:0 4:0 5:0.33333 6:0 
-1 1:0 2:0 3:0 4:0 5:0.04706 6:0.00392 
-1 1:0 2:0 3:0.22222 4:0.11111 5:0 6:0 
-1 1:0 2:0 3:0.16667 4:0 5:0.06667 6:0 
-1 1:0 2:0 3:0 4:0 5:0.25 6:0 
-1 1:0 2:0 3:0.2 4:0 5:0.05799 6:0 
-1 1:0 2:0 3:0.2 4:0 5:0.05308 6:0.00425 
-1 1:0 2:0 3:0 4:0 5:0.01706 6:0 
-1 1:0 2:0 3:0.16667 4:0 5:0.07143 6:0 
-1 1:0 2:0 3:0 4:0 5:0.03922 6:0 
-1 1:0 2:0 3:0 4:0 5:0.0942 6:0.05072 
-1 1:0 2:0 3:0 4:0 5:0.25 6:0.05 
-1 1:0 2:0 3:0.2 4:0 5:0.02454 6:0 
-1 1:0 2:0 3:0.16667 4:0 5:0.03985 6:0.0778 
-1 1:0 2:0 3:0 4:0 5:0.02439 6:0 
-1 1:0 2:0 3:0.16667 4:0 5:0.01392 6:0.00795 
-1 1:0 2:0 3:0.16667 4:0 5:0.1 6:0 
-1 1:0 2:0 3:0.2 4:0 5:0.01351 6:0 
-1 1:0 2:0 3:0.2 4:0 5:0.01351 6:0 
-1 1:0 2:0 3:0 4:0 5:0.01689 6:0 
-1 1:0 2:0 3:0.125 4:0.375 5:0.08696 6:0.04348 
-1 1:0 2:0 3:0 4:0 5:0.01684 6:0 
-1 1:0 2:0 3:0.2 4:0 5:0.04348 6:0 
-1 1:0 2:0 3:0.16667 4:0 5:0.1 6:0 
-1 1:0 2:0 3:0 4:0 5:0.03922 6:0 
-1 1:0 2:0 3:0.1 4:0.1 5:0.10526 6:0.05263 
-1 1:0 2:0 3:0.11111 4:0.11111 5:0.11111 6:0.05556 
-1 1:0 2:0 3:0.14286 4:0 5:0.13043 6:0 
-1 1:0 2:0.14286 3:0 4:0 5:0.15348 6:0.10072 
-1 1:0.1 2:0 3:0 4:0.14286 5:0.13568 6:0.09296 
-1 1:0 2:0 3:0.125 4:0.0625 5:0.15666 6:0.05222 
-1 1:0 2:0 3:0.11111 4:0 5:0.04887 6:0.00376 
-1 1:0 2:0 3:0.16667 4:0 5:0.1 6:0 
-1 1:0 2:0 3:0.16667 4:0 5:0.00252 6:0 
-1 1:0 2:0 3:0 4:0 5:0.20621 6:0.05322 
-1 1:0 2:0 3:0.11111 4:0 5:0.13103 6:0.01379 
-1 1:0 2:0 3:0 4:0 5:0.33333 6:0 
-1 1:0 2:0 3:0 4:0 5:0.06161 6:0.09953 
-1 1:0 2:0 3:0 4:0 5:0.24859 6:0.03955 
-0.5121387675989134 1:0 2:0 3:0.25 4:0 5:0 6:0 
-1 1:0 2:0 3:0.1 4:0 5:0.05263 6:0 
-1 1:0 2:0 3:0 4:0 5:0.03922 6:0 
-1 1:0 2:0 3:0.16667 4:0 5:0.07143 6:0 
-1 1:0 2:0 3:0.22222 4:0.11111 5:0.02373 6:0.04905 
-1 1:0 2:0 3:0.25 4:0 5:0 6:0 
-1 1:0 2:0 3:0.16667 4:0 5:0.04412 6:0 
-1 1:0 2:0 3:0.25 4:0 5:0 6:0 
-1 1:0 2:0 3:0.25 4:0 5:0 6:0 
-1 1:0 2:0 3:0.15385 4:0 5:0.1 6:0 
-1 1:0 2:0 3:0.25 4:0 5:0 6:0 
-1 1:0 2:0 3:0.25 4:0 5:0 6:0 
-1 1:0 2:0 3:0.2 4:0 5:0.02632 6:0 
-1 1:0 2:0 3:0.25 4:0 5:0 6:0 
-1 1:0 2:0 3:0.25 4:0 5:0 6:0 
-1 1:0 2:0 3:0 4:0 5:0.12343 6:0.0272 
-1 1:0 2:0 3:0.16667 4:0 5:0.01392 6:0.00795 
-1 1:0 2:0 3:0.16667 4:0 5:0.11111 6:0 
-0.6355976477996633 1:0 2:1 3:0.11111 4:0.11111 5:0.08333 6:0.08333 
-1 1:0 2:0 3:0.14286 4:0 5:0.08 6:0 
-1 1:0 2:0.33333 3:0 4:0.22222 5:0.22269 6:0.07563 
-1 1:0 2:0 3:0.25 4:0 5:0 6:0 
-1 1:0 2:0 3:0.25 4:0 5:0 6:0 
-1 1:0 2:0 3:0 4:0 5:0.33333 6:0 
-1 1:0 2:0 3:0.16667 4:0 5:0.08333 6:0 
-1 1:0 2:0 3:0 4:0.5 5:0.10662 6:0.10294 
-1 1:0 2:0 3:0.14286 4:0 5:0.14286 6:0 
-1 1:0 2:0 3:0.15385 4:0 5:0.1 6:0 
-1 1:0 2:0 3:0.14286 4:0 5:0.06061 6:0 
-1 1:0.33333 2:0 3:0 4:0 5:0 6:0 
-1 1:0 2:0 3:0 4:0 5:0.20843 6:0.03279 
-1 1:0 2:0 3:0.2 4:0 5:0.00544 6:0.0102 
-1 1:0 2:0 3:0.125 4:0 5:0.11261 6:0.03604 
-1 1:0 2:0 3:0 4:0 5:0.2 6:0.2 
-1 1:0 2:0 3:0.25 4:0 5:0 6:0 
-1 1:0 2:0 3:0.2 4:0.2 5:0.04734 6:0.11243 
-1 1:0 2:0 3:0 4:0 5:0.07661 6:0.03629 
-1 1:0 2:0 3:0 4:0 5:0.0544 6:0.05142 
-1 1:0 2:0 3:0.25 4:0 5:0 6:0 
-1 1:0 2:0 3:0.14286 4:0 5:0.04286 6:0 
-1 1:0 2:0 3:0.09091 4:0 5:0.02347 6:0.00469 
-1 1:0.25 2:0 3:0 4:0 5:0.11111 6:0.06566 
-1 1:0.1 2:0 3:0.14286 4:0 5:0.03158 6:0 
-1 1:0 2:0 3:0.25 4:0 5:0 6:0 
-1 1:0.33333 2:0 3:0 4:0 5:0 6:0 
-1 1:0 2:0 3:0.2 4:0 5:0.05239 6:0.05613 
-1 1:0 2:0 3:0.18182 4:0.09091 5:0.02516 6:0.05031 
-1 1:0 2:0 3:0.16667 4:0 5:0.1 6:0 
-1 1:0 2:0 3:0.2 4:0.26667 5:0.03496 6:0.05368 
-1 1:0 2:0 3:0.16667 4:0.16667 5:0.02947 6:0.03368 
-1 1:0 2:0 3:0.2 4:0.13333 5:0.03862 6:0.05726 
-1 1:0 2:0.14286 3:0 4:0.14286 5:0.13995 6:0.09415 
-1 1:0 2:0 3:0.25 4:0 5:0 6:0 
-1 1:0 2:0 3:0.16667 4:0 5:0.07143 6:0 
-1 1:0 2:0 3:0 4:0 5:0.03008 6:0 
-1 1:0 2:0 3:0 4:0.2 5:0.13651 6:0.01445 
-1 1:0 2:0 3:0 4:0 5:0.12389 6:0.06195 
-1 1:0 2:0 3:0.15385 4:0 5:0.10526 6:0 
-1 1:0 2:0 3:0.16667 4:0 5:0.05882 6:0 
-1 1:0 2:0 3:0 4:0 5:0.01887 6:0 
-1 1:0 2:0 3:0.2 4:0 5:0.0495 6:0 
-1 1:0 2:0 3:0 4:0 5:0.0173 6:0 
-1 1:0 2:0 3:0 4:0 5:0.01961 6:0 
-1 1:0 2:0 3:0.11111 4:0 5:0.11111 6:0 
-1 1:0 2:0 3:0.2 4:0 5:0.0625 6:0 
-1 1:0.11111 2:0 3:0.14286 4:0 5:0 6:0 
-1 1:0.25 2:0 3:0 4:0 5:0.1 6:0 
-1 1:0 2:0 3:0.2 4:0 5:0.01449 6:0 
-1 1:0 2:0 3:0.2 4:0 5:0.04348 6:0 
-1 1:0 2:0 3:0.11111 4:0 5:0.01266 6:0.06329 
-1 1:0 2:0 3:0 4:0 5:0.01706 6:0 
-1 1:0.33333 2:0 3:0 4:0 5:0.00787 6:0.00656 
-1 1:0.25 2:0 3:0 4:0 5:0.11765 6:0 
-1 1:0 2:0 3:0.25 4:0 5:0 6:0 
-1 1:0 2:0 3:0 4:0 5:0.33333 6:0 
-1 1:0 2:0 3:0.16667 4:0 5:0.06371 6:0.03324 
-1 1:0 2:0 3:0 4:0 5:0.01689 6:0 
-1 1:0 2:0 3:0 4:0 5:0.01689 6:0 
-1 1:0 2:0 3:0.2 4:0 5:0.05479 6:0.15068 
-1 1:0 2:0 3:0.2 4:0.2 5:0.02727 6:0.10909 
-0.9783898597784684 1:0 2:0 3:0 4:0 5:0.33333 6:0 
-1 1:0 2:0 3:0 4:0 5:0.07054 6:0.00415 
-1 1:0.16667 2:0 3:0 4:0 5:0.11111 6:0 
-1 1:0 2:0 3:0 4:0.2 5:0.28037 6:0.07477 
-1 1:0 2:0 3:0.25 4:0 5:0 6:0 
-1 1:0 2:0 3:0.14286 4:0 5:0.10331 6:0.02479 
-1 1:0 2:0 3:0.07692 4:0 5:0.03226 6:0.06452 
-1 1:0 2:0 3:0 4:0 5:0.21591 6:0 
-1 1:0 2:0 3:0 4:0 5:0.21591 6:0 
-1 1:0.36364 2:0 3:0 4:0 5:0 6:0 
-1 1:0 2:0 3:0.15385 4:0 5:0.1 6:0 
-1 1:0 2:0 3:0 4:0 5:0.07054 6:0.00415 
